126
126
111
114
80
-91
125
122
124
120
120
-119
-127
118
-84
64
123
95
-117
121
100
-117
-124
-112
91
112
115
112
-122
107
119
-124
-123
101
110
-110
104
-94
86
-103
120
109
124
-123
-117
123
98
118
111
117
104
119
118
-127
116
92
107
-113
90
86
-111
102
118
109
-127
-109
-80
-113
101
-101
-118
125
-109
99
107
63
121
107
109
106
111
101
111
82
106
-119
116
122
-93
-128
115
-116
-126
-96
102
-101
-123
120
-106
118
-128
-91
106
114
-117
117
109
113
-128
115
100
116
108
95
117
126
79
116
116
120
94
122
-120
108
-113
127
104
-127
125
-92
-126
116
115
114
123
85
105
122
118
-97
-114
-117
88
87
112
104
107
109
111
116
101
121
117
-124
117
96
109
61
-117
-127
108
125
-115
-115
77
111
-81
111
-123
-126
-112
123
100
101
-125
87
-121
115
127
118
-117
-127
-121
126
116
102
124
118
-124
-115
-102
-119
119
126
116
121
107
-125
100
-102
106
-118
116
123
100
-126
-107
122
124
116
125
115
74
-117
-127
-127
-126
-115
-120
-99
127
102
-103
86
-117
-121
124
-121
-124
103
126
-119
123
-123
102
-128
103
115
-115
122
-92
110
113
-121
97
98
-119
115
98
-121
122
120
101
111
77
107
113
108
121
-119
123
89
-122
-125
-112
-120
122
-127
-123
-112
114
119
114
-120
-123
-123
112
-121
124
126
-117
88
114
-121
-108
118
-87
115
-80
109
-83
121
89
-126
-115
80
108
-77
118
115
95
-116
122
123
-121
-117
116
-125
-128
-116
119
114
-106
-116
111
111
124
114
70
-96
-119
120
-93
-128
103
102
-101
118
87
83
-120
104
117
-128
108
114
125
125
105
127
-125
-92
-121
113
103
123
107
93
117
96
-122
125
-122
113
82
107
93
-108
-103
-116
124
125
-120
-124
-127
-109
111
-113
113
124
-104
125
-113
-126
111
-128
120
-114
-118
114
120
112
104
109
-102
108
117
121
-117
121
-92
113
120
119
124
110
113
105
122
-128
-127
110
109
-122
102
117
-120
104
-112
-100
-89
79
122
-115
108
-121
119
127
126
122
117
95
117
-113
120
120
91
-106
-122
-111
120
-127
-124
114
-93
102
114
-119
-114
112
119
89
-123
127
100
125
-128
97
121
102
88
-127
101
91
93
-128
106
106
-127
-126
-124
-119
85
-128
-110
-122
115
127
112
109
-108
-93
-120
-100
126
108
-128
123
-65
122
119
-127
-112
-104
-112
-114
105
-83
-116
104
114
-126
123
83
119
101
123
108
-117
-123
126
121
118
-117
118
-116
116
-127
-95
-122
101
117
105
-128
121
126
-127
-128
122
127
-126
93
123
-118
82
-125
120
118
102
-128
69
-109
-127
126
-126
107
118
-123
-112
127
107
111
-124
118
-115
-126
117
116
-115
116
102
96
-123
106
106
126
127
104
113
121
91
123
123
-127
-113
85
-128
115
126
-108
116
-112
-125
-108
-119
122
104
105
113
124
-126
-119
100
121
126
-109
-127
125
115
-123
110
-125
-125
90
93
95
113
102
112
-127
-115
121
-126
-115
110
121
-117
-118
-127
126
-118
99
106
108
-115
68
-118
127
-119
121
100
126
104
118
124
-122
113
112
-115
124
-128
-124
71
-74
127
124
-123
112
-117
123
119
121
-125
-126
118
127
-127
100
-125
123
94
-98
107
112
-116
91
-113
112
103
-120
-127
80
91
96
-120
125
95
125
126
88
127
-107
113
-128
-126
-119
81
81
-122
108
118
126
118
102
118
-99
126
119
98
118
-68
-122
-46
-96
127
-128
118
116
113
98
-123
123
-101
88
123
124
101
109
-126
106
97
113
-118
116
120
-123
-114
122
107
124
-119
-127
125
118
112
-123
-113
95
-119
119
127
-113
-110
103
-111
100
112
95
-128
121
117
103
-102
94
113
127
-77
122
106
126
117
111
-124
112
-105
113
103
-117
105
-127
-121
104
-109
120
-114
75
118
121
125
106
-125
-127
-72
-119
-128
-116
116
-124
110
-122
111
94
124
123
109
125
115
-115
125
-87
113
117
127
-114
108
126
-119
-127
117
-100
127
105
-128
116
-95
-97
103
-105
-120
127
-100
116
115
127
127
-106
-115
110
124
119
122
-123
112
123
116
95
95
-125
125
126
-123
-126
76
-126
80
98
-63
-99
-113
121
122
99
-112
125
-82
124
58
126
116
119
113
-128
-123
-123
113
119
-120
91
93
125
119
118
109
54
-128
-63
110
122
-119
127
107
-112
-113
-126
118
-119
-127
88
111
-128
119
-119
-123
112
-121
120
-119
124
108
123
107
107
111
108
-120
-99
113
125
-119
-127
115
-60
117
113
106
-123
116
99
116
-126
116
-124
-94
125
-119
-104
127
112
118
-122
121
-114
84
-116
114
-98
-122
-105
-118
-119
53
-125
122
-127
118
85
111
118
97
109
121
-122
-112
-124
127
70
107
122
-117
-110
121
111
122
-111
123
121
-114
112
-111
97
-111
-125
-114
-121
119
107
-126
-114
119
-118
102
117
126
122
123
97
-126
82
-120
109
123
110
114
-123
-102
103
-127
123
-124
-117
126
115
-110
-111
97
-127
-116
122
112
95
90
-124
124
68
95
115
115
-113
118
127
113
-126
115
91
83
-86
120
113
113
-119
121
114
124
107
120
-119
122
117
123
-127
110
-127
125
125
123
123
124
127
107
122
123
123
124
125
118
-126
121
120
124
124
126
123
127
117
118
-127
122
112
-122
118
121
116
-121
115
124
-128
120
122
119
119
-125
121
123
109
-128
117
120
-124
126
111
127
121
-123
114
121
-127
124
127
127
122
-127
-103
116
117
119
-127
118
121
121
118
117
117
-105
125
122
124
116
-128
125
121
-125
122
-126
108
121
126
124
116
120
124
118
121
125
122
120
118
126
120
118
112
117
123
119
118
119
122
-126
123
126
107
123
119
125
120
125
-127
108
120
118
-128
120
111
-127
111
120
116
120
119
114
-126
117
121
122
117
126
-125
117
120
125
122
117
125
125
119
-120
118
117
112
122
125
121
-128
-126
125
120
121
124
118
122
121
126
123
121
123
115
-110
124
127
125
115
124
119
125
113
123
124
126
121
-128
-125
118
127
-128
123
126
127
116
116
117
115
123
123
-124
-128
119
122
-117
118
122
124
110
-123
117
-121
119
127
-117
123
121
123
114
126
117
-126
-120
123
-127
108
126
116
119
119
-116
126
-124
121
122
127
125
115
125
-127
125
120
122
115
124
127
124
124
122
117
121
120
100
116
-123
126
101
126
-127
117
124
118
121
125
119
126
110
121
-128
127
124
-126
125
113
120
116
113
125
123
122
120
116
113
-123
120
122
115
124
113
118
125
-93
-119
-127
126
-128
122
123
113
115
127
114
125
121
-67
122
116
121
121
-127
122
124
-123
119
126
-126
120
-106
-116
-128
119
-126
126
119
-128
120
116
-121
118
116
125
123
106
120
117
114
123
121
127
118
118
127
124
108
118
124
119
121
122
103
-116
126
-128
126
120
126
109
-128
123
123
120
127
124
108
-125
121
120
-125
123
120
124
120
118
118
117
119
126
125
118
125
119
112
-103
116
-125
120
126
-126
116
126
115
122
119
-127
123
-127
104
123
113
126
-124
126
-127
123
121
115
127
124
-125
125
-123
119
-127
-120
125
-122
123
-127
121
-127
124
127
119
122
107
123
123
121
114
123
122
127
125
113
-125
108
118
122
112
124
119
121
-121
108
123
-127
116
118
119
-91
-127
122
109
124
118
-123
122
116
126
-128
117
-128
120
117
117
127
-116
-126
116
112
127
116
118
124
118
120
115
120
123
-46
-120
109
121
126
127
107
120
121
126
121
126
121
-122
123
126
119
-124
120
123
-120
118
125
-125
127
114
127
127
125
123
-126
105
127
125
119
110
117
124
-125
123
116
126
120
118
124
120
122
124
115
127
126
-124
123
118
126
118
122
121
122
119
118
123
126
-126
-128
126
107
120
120
122
120
124
120
119
-127
121
114
127
127
127
123
127
103
-121
119
121
120
-126
114
117
124
-125
124
117
103
-121
111
107
120
122
123
119
124
-126
117
118
-122
122
124
118
126
123
124
103
-125
-124
121
127
127
117
114
109
119
127
123
120
127
119
117
-128
127
122
-113
109
-125
-125
119
115
117
118
127
-118
123
122
116
122
120
117
112
118
122
125
123
-127
103
101
123
-127
119
122
98
127
117
-127
126
123
-128
127
113
123
120
-124
-128
120
-122
122
102
119
117
-128
116
122
122
119
127
114
124
-116
122
78
125
114
127
125
109
124
-102
124
124
114
126
120
124
123
114
109
120
120
-124
127
-124
99
123
124
124
-123
110
-125
116
90
116
123
122
-128
120
-127
121
123
-119
-104
-127
103
109
123
117
123
121
123
123
-124
-127
124
-124
120
127
120
125
120
118
119
118
123
119
123
122
121
123
-128
-123
124
-126
124
-126
108
96
-128
-128
117
119
125
-118
125
126
112
-119
124
-125
122
118
119
127
109
118
121
119
126
116
110
-128
116
123
123
124
111
116
118
-126
120
-124
-120
120
118
120
125
126
-128
-109
118
119
120
114
122
111
121
116
124
125
120
-119
112
119
-127
124
120
119
123
107
115
110
125
124
125
-122
-126
-121
126
110
120
122
121
-126
120
98
116
127
124
-128
120
124
-128
106
114
103
123
119
113
-105
122
127
101
126
122
-122
-128
119
118
124
114
127
115
127
124
-128
120
126
111
117
100
118
125
124
-126
119
116
122
115
126
116
-127
123
-127
124
123
103
126
123
103
122
-125
123
115
118
121
123
122
120
124
-127
122
120
121
107
124
127
125
123
118
124
121
-124
118
124
120
-127
107
122
99
119
125
-125
-125
125
117
119
121
112
101
-124
114
124
118
117
120
125
117
121
121
123
113
126
-125
-127
117
-114
119
122
119
-109
123
117
115
-128
125
125
117
123
126
126
101
127
109
122
120
124
120
114
-127
121
112
122
-125
-127
122
119
118
-125
-126
-127
126
119
118
113
107
115
120
-116
-117
114
125
121
124
115
-116
123
-118
116
120
121
-118
127
112
113
-128
121
118
127
-127
121
126
-126
119
122
118
123
114
125
116
122
119
117
122
-113
109
122
124
103
124
125
117
-120
123
118
127
116
127
120
117
44
66
74
59
56
93
74
55
46
-82
85
-115
78
65
62
110
51
71
-85
124
40
51
-92
79
-112
35
58
63
51
62
60
73
39
65
50
94
48
117
65
118
93
96
40
38
39
59
39
58
101
48
-103
67
83
79
75
58
46
54
64
72
30
-83
57
32
45
98
61
70
50
62
70
40
101
85
68
122
80
31
41
97
52
35
50
116
-56
73
60
53
42
58
38
32
88
102
32
55
123
65
76
34
64
75
110
59
52
55
54
43
65
45
120
68
40
65
49
26
42
61
30
56
116
91
83
63
51
45
42
53
83
46
52
107
79
76
44
126
68
63
57
76
80
57
93
81
47
51
58
47
46
103
77
44
53
43
107
59
58
63
25
54
66
60
83
51
94
51
120
45
55
62
52
58
44
41
37
29
45
72
-100
57
112
98
39
53
63
51
53
56
27
80
42
-92
56
69
40
43
71
46
65
58
51
82
42
46
32
48
49
49
76
60
48
61
82
110
28
35
61
25
51
17
71
41
46
90
-97
37
79
48
52
72
75
109
47
73
61
51
-63
31
71
46
85
28
45
45
109
66
48
47
72
125
68
36
-128
56
59
41
50
97
59
44
-123
-103
46
78
60
55
64
77
53
98
49
60
47
41
55
48
75
86
66
27
42
73
92
46
4
45
77
79
-84
47
113
93
62
62
58
85
45
-122
95
39
72
96
63
78
49
49
56
65
96
57
91
35
75
38
53
74
65
44
-2
67
88
67
75
62
68
45
48
39
62
12
83
60
74
44
69
26
25
21
96
51
61
94
63
59
107
55
19
61
57
43
102
79
77
102
124
58
-92
-46
48
60
57
69
46
42
33
60
65
56
67
25
66
42
-124
45
80
57
68
49
37
60
61
47
86
56
94
119
48
60
67
84
39
53
41
36
65
45
65
62
77
48
44
59
66
57
48
58
39
94
50
57
-65
35
52
100
34
37
56
116
71
53
40
62
51
71
70
40
90
97
54
56
70
63
58
92
95
42
58
55
47
50
45
71
106
56
38
57
41
45
44
112
70
42
32
59
70
51
48
91
91
49
36
50
83
71
58
45
53
79
50
54
68
53
79
67
45
31
56
78
56
45
79
46
71
59
91
-94
100
-121
45
72
27
103
23
62
42
-1
51
55
34
56
59
79
73
65
35
65
50
77
48
42
34
36
-99
126
-76
-121
-123
-98
-114
126
-101
-79
-108
-87
-98
-106
-107
-70
-114
-118
-68
-85
111
-127
-70
-99
-76
-121
-128
-119
124
-123
-107
121
-123
-110
-106
-106
-127
-97
-115
-126
-100
-85
121
-113
124
-116
-126
120
-85
123
-75
-127
121
-113
-119
-104
125
-103
-91
-104
111
-80
-128
-103
-105
-94
-112
-100
-99
-102
-107
-121
-109
-94
100
-95
-111
123
118
-71
107
-107
-97
-92
-42
120
119
-109
-113
122
-119
-93
-101
-107
123
-104
-59
113
-67
-122
-124
-117
-96
-116
-127
-113
-125
-119
-104
109
-71
-114
124
-124
-127
121
-111
-110
-112
125
-95
-58
-117
-121
-103
125
-126
109
-106
-117
-126
-90
-110
-109
-121
-67
-126
-117
-113
-93
-100
123
-95
-100
-115
-125
-113
124
122
-124
-100
109
-119
-117
-120
-121
-126
-116
-110
-126
-105
-117
-98
109
-108
-91
-95
-103
-108
-107
121
-122
-105
-109
-110
-110
120
-127
-79
114
-104
-93
-124
127
-116
-116
-111
-116
-106
-92
-101
-80
-120
-124
-126
113
-112
-99
-94
-118
-124
-117
-117
126
-119
-124
126
-106
-94
118
108
-118
-106
-101
-115
-93
-100
-120
-123
-126
121
-100
-98
-90
-89
122
-80
-106
-108
-126
-125
-80
126
-85
-113
123
-66
-126
121
122
-92
-109
-128
-117
-98
-104
-122
118
-110
-89
-120
-107
-101
-103
-120
118
-128
-96
-119
124
-115
-70
113
-126
122
-123
-124
-87
-128
-105
-120
112
-115
112
118
-120
123
-104
-128
-118
119
-91
-97
116
-127
-101
-117
123
-72
119
-71
125
-83
-117
-120
-94
119
-105
-84
123
-106
-106
-121
-98
-125
-110
-112
-118
-111
127
125
-104
-115
-116
-119
-116
122
-118
-42
-105
-97
-108
-116
-105
126
-128
-105
127
-105
-128
-100
-97
-80
-125
-113
126
-119
-127
-110
-125
118
-105
-128
-122
-93
-99
-120
-103
113
-120
-93
-90
-116
-74
-95
-98
-71
-49
109
-111
125
-103
112
-120
-110
-115
-127
-124
-124
-101
-123
-115
-65
124
-122
-107
113
-121
-120
118
-128
-116
-97
-122
-94
-77
-100
-79
117
-108
-119
-117
-126
-121
-121
-113
-124
-80
-127
-96
-121
-125
126
124
-123
-119
119
-103
-115
-113
-66
-101
-104
-91
125
116
111
-84
-94
-113
127
-113
115
-90
111
121
-118
-95
-93
-123
127
122
-120
-107
-99
118
118
-122
-121
-108
125
-115
-74
-97
-109
116
121
-108
-124
-87
-113
-120
112
-101
-123
-122
-108
-123
-123
-116
116
119
-124
125
120
-104
123
116
-95
122
124
-124
-113
116
120
-104
114
122
-108
-110
-99
115
-107
-119
-82
-56
-76
-66
114
-116
-122
-113
125
-110
122
-52
125
-117
116
121
-115
-109
-127
-126
-125
-125
-115
-85
126
-127
-100
126
125
125
-108
-118
-127
-101
118
-125
114
105
121
124
108
-115
119
59
106
74
-124
116
107
113
-107
-101
125
-115
91
120
-119
121
100
-116
-118
119
108
124
-99
-128
98
-87
80
-107
123
110
-120
87
125
-126
85
112
96
109
-112
116
100
123
-125
127
119
-109
-95
-126
107
107
-114
-109
-65
-99
111
100
118
-123
-121
100
-115
127
124
-127
122
85
108
96
123
100
-124
105
104
-112
-90
116
-127
-93
-127
111
-126
-114
-104
106
119
93
-126
120
115
111
124
117
-128
107
-110
-128
-117
108
120
119
-126
114
-128
-116
-123
117
108
94
122
122
105
-125
-110
-127
107
76
101
-128
75
-118
114
97
-108
115
106
115
-128
-124
121
124
120
114
-126
-125
125
-128
118
112
-119
122
116
98
109
110
-127
123
-123
-123
-114
-123
-123
104
-105
123
126
107
124
-127
50
124
127
112
-124
-126
-121
-128
-123
97
120
121
127
106
109
-126
-117
118
125
122
124
-119
113
125
-123
117
99
-126
-125
-84
-117
-113
124
-115
119
117
-127
104
126
-125
114
119
-124
107
-110
-116
119
123
-123
68
-107
96
-110
122
-90
124
116
118
122
-108
127
105
127
124
72
-124
115
116
111
116
-112
115
-125
108
121
119
106
112
122
-108
107
122
125
-127
111
113
117
-124
120
-106
114
119
122
120
111
112
-118
-95
-119
-123
-121
113
120
-127
117
-128
122
113
106
126
-95
105
-126
-115
105
107
-104
-127
-116
100
-103
115
-124
-115
125
-122
117
-120
102
111
110
-127
120
-103
-104
-125
-114
-107
-128
112
-118
125
121
102
117
125
94
112
-122
-113
97
101
126
112
118
125
63
-119
120
101
-125
-114
-110
112
121
-111
91
-110
115
-126
126
-122
122
-122
-126
-121
116
119
-121
-123
107
-102
122
119
125
-115
-126
121
125
127
103
103
62
125
-117
-126
111
114
-126
113
127
100
83
119
122
115
104
118
-93
113
-123
98
-102
78
-102
108
109
112
-124
119
-113
95
113
-113
-125
-114
117
-86
96
110
113
123
-120
104
-110
78
-117
96
-122
65
-116
126
-113
125
-127
-123
-115
-120
114
112
118
-67
-114
100
103
-118
-113
-118
-124
111
119
-124
95
115
113
124
-116
96
121
99
95
-125
-127
-128
-121
-127
127
-106
115
-124
121
117
91
-125
115
113
106
-101
109
-113
104
118
101
-115
115
94
-120
113
-109
-120
-110
-122
122
116
123
107
127
113
126
-119
-108
126
-92
124
122
118
-124
102
99
116
93
126
101
102
124
114
-111
-122
123
124
121
-117
116
-119
-118
-125
108
-114
93
112
-77
106
-117
108
-115
-124
124
104
-114
87
114
118
-109
-120
-126
127
117
-125
98
-69
122
127
126
120
69
107
126
-120
122
109
126
117
117
106
118
106
115
118
-122
117
113
109
126
110
-125
126
-125
111
117
-125
81
119
117
105
117
118
120
-95
-115
115
125
-114
124
-125
122
74
-123
120
-111
106
-109
105
113
-109
121
-126
124
124
124
-113
118
68
109
103
-101
-110
113
-111
-104
120
-118
126
117
122
-115
-105
-107
103
94
114
-123
104
124
114
119
-122
114
104
106
124
108
102
119
119
-121
119
-111
116
113
111
109
-71
-125
127
-109
119
-114
123
115
103
-120
119
-127
116
-124
122
-125
-124
-125
119
-117
119
114
-90
-123
-127
117
-120
-124
96
123
-128
114
-96
125
-118
-117
-113
-118
-126
115
-110
-106
119
-121
73
-101
121
102
-119
121
114
-93
-107
-126
101
111
120
-97
125
-115
85
-117
123
111
105
64
-126
-122
110
-113
82
119
-108
-124
115
-123
-128
101
-128
120
122
100
122
-117
-126
110
82
-124
-124
-113
118
125
-115
85
108
109
-117
-123
-116
125
-100
-98
117
-115
-120
88
113
119
125
108
113
-126
-112
-123
-124
108
108
120
113
-111
112
82
124
-95
108
114
104
124
-105
114
103
-104
114
119
116
-123
-121
105
99
-118
112
123
-119
121
105
-104
112
115
100
-127
126
110
-110
109
104
110
98
-123
-116
106
-109
127
107
108
112
113
-110
126
108
-123
109
-76
125
123
-119
118
126
-73
113
120
123
124
121
122
118
106
-121
119
122
115
104
118
111
98
104
123
-116
-117
89
118
122
126
82
120
122
106
-108
98
117
102
122
-125
127
-124
111
109
121
113
96
-128
-125
-122
109
-79
-112
79
125
126
111
125
88
-120
110
119
-123
98
73
114
-108
124
117
-124
123
95
126
-126
-127
116
121
107
127
125
-94
126
122
-127
119
124
110
124
-115
88
-123
120
-127
127
107
108
97
-110
117
116
120
-124
97
-124
107
-128
120
127
124
-112
123
115
100
123
-120
103
119
109
125
-119
92
118
127
109
109
107
112
-120
120
-124
-112
102
126
115
-108
78
125
-120
-125
105
-111
104
-119
109
106
117
-123
117
119
111
-119
89
119
-123
108
124
104
-126
112
122
105
-120
127
-119
114
112
-124
122
-117
114
109
124
127
-124
124
83
-112
125
-105
123
-116
-119
124
117
121
104
-119
-118
-128
-85
114
103
-128
-105
104
-103
109
-128
-123
-116
105
-116
-107
109
113
-102
120
124
99
118
114
103
-120
122
-90
-120
114
121
-116
119
-116
127
-126
121
126
122
125
-114
113
126
121
123
121
-127
108
126
120
-128
120
-123
126
122
120
-126
119
-125
-124
-121
121
118
-119
109
115
124
117
126
127
124
97
126
123
122
122
122
126
127
119
102
-114
119
89
124
125
122
-80
119
126
-126
126
114
-125
116
117
119
121
118
-128
117
127
121
125
118
117
116
123
119
117
-120
122
-123
125
-120
122
-128
125
127
117
126
115
127
126
-122
123
121
107
124
115
124
127
119
-124
114
-126
-126
115
126
123
-128
104
124
120
123
116
126
107
116
119
123
120
127
122
125
125
122
123
127
-128
119
-118
-120
116
118
107
125
-128
112
108
121
116
121
110
124
125
123
105
126
127
122
115
127
89
118
127
115
123
-128
119
122
-117
118
126
122
121
126
122
124
125
122
-128
106
122
121
125
126
122
118
125
123
119
121
121
126
120
-115
120
118
118
-128
120
123
127
124
122
117
-128
109
-107
126
123
123
116
123
106
125
124
122
124
119
123
117
119
125
125
122
126
120
118
118
118
122
120
127
124
118
111
121
119
-121
119
119
122
111
110
122
123
114
-102
-111
119
119
-125
126
-128
122
120
124
101
115
-128
100
127
124
124
-119
127
125
115
-122
98
124
84
120
122
79
-114
125
-127
127
118
118
127
124
116
120
120
120
121
116
127
121
121
127
122
-127
125
125
112
119
-123
-126
-127
125
-119
115
123
113
95
127
123
122
126
-120
124
126
121
122
111
116
125
123
126
120
114
122
125
-112
117
125
119
126
102
127
125
-126
125
121
115
110
121
-125
125
125
117
126
124
125
-128
124
123
-126
113
-119
-128
120
122
121
124
121
123
123
125
-121
121
124
119
126
121
-123
123
126
-111
-127
118
121
122
125
126
121
125
118
119
124
126
120
117
-125
126
123
121
-118
-128
123
117
109
123
125
125
125
126
-120
-119
127
124
82
116
106
120
105
-128
122
-101
118
127
124
120
116
121
122
120
122
124
120
125
122
122
124
127
118
122
115
121
103
122
-105
-113
113
115
119
127
123
126
120
-114
117
113
-128
-126
117
123
-115
117
127
122
-122
109
-125
-123
-126
-128
121
120
121
124
125
-124
120
127
119
110
108
119
99
-120
122
120
126
84
-126
116
-119
126
121
122
112
125
127
-125
126
122
119
125
123
126
123
124
125
123
120
118
122
121
127
123
-126
119
120
-118
-124
124
120
121
118
124
121
119
121
126
-124
-126
123
-127
125
124
123
-123
122
120
125
124
-126
125
118
118
116
115
122
118
125
125
121
113
123
117
125
118
107
119
127
124
127
122
124
-127
-109
117
124
118
125
122
123
-127
125
121
-126
119
125
120
-127
-110
115
-128
122
127
122
115
120
124
119
122
-128
120
-120
119
114
-115
119
114
121
124
115
127
123
125
-128
120
117
122
113
123
118
124
118
123
122
125
119
126
-128
123
126
120
116
123
116
123
126
110
125
-128
125
-120
119
122
124
125
116
122
124
123
118
120
125
109
-128
123
118
111
123
121
-128
-123
119
115
124
122
120
123
121
119
127
127
118
117
120
-116
-110
120
119
116
121
-128
124
-116
124
125
123
126
-117
-93
125
119
122
-124
126
126
127
122
111
-127
121
123
124
127
122
-126
123
116
124
119
121
107
-124
115
123
121
122
123
-127
120
122
-115
111
123
125
-124
120
127
127
125
124
120
119
115
120
123
122
121
127
118
122
125
-125
127
121
-106
122
122
-121
119
115
119
118
127
121
122
120
127
124
119
-124
123
115
124
-128
126
123
-124
124
117
114
127
118
124
-128
116
115
125
117
121
127
-118
121
124
-128
-128
124
123
117
-119
117
124
-127
125
93
123
127
124
118
126
111
125
119
121
120
123
-122
125
117
119
114
118
123
119
127
-126
119
124
119
125
121
125
-102
124
122
121
-126
123
124
122
114
120
121
112
118
114
125
126
-119
-124
111
121
118
118
112
119
121
120
-127
118
121
120
108
124
126
122
-126
125
106
-109
-128
-121
113
123
121
114
-124
124
-127
120
125
118
125
124
118
118
120
122
126
125
118
121
119
123
122
105
-127
120
121
123
125
123
120
122
113
118
122
118
121
118
-127
120
121
-128
124
126
119
124
123
118
121
123
117
126
-124
-117
127
126
-127
121
113
127
116
122
122
115
116
120
123
118
-122
-126
116
123
120
121
122
115
-128
124
114
124
123
107
124
-125
119
120
118
122
121
121
116
115
123
125
124
123
126
74
118
116
-125
118
107
124
107
-125
-126
118
123
125
123
118
123
-122
120
-113
127
121
121
120
117
-126
122
125
-127
126
-128
110
-119
120
123
124
122
107
122
-122
-127
113
117
125
126
-127
125
117
118
119
125
-123
122
-126
121
125
119
117
-124
125
123
116
119
-111
117
127
121
123
-125
122
111
118
123
-127
127
121
123
120
124
120
122
119
-105
120
121
117
126
121
121
118
121
117
124
123
123
117
47
59
67
-119
52
47
48
55
108
-116
72
45
67
44
51
65
77
-80
-82
97
48
40
37
-127
58
52
59
52
55
36
55
42
81
46
35
41
46
35
58
66
87
45
40
66
60
59
53
48
48
40
98
68
51
44
35
96
31
100
58
33
73
52
28
87
45
87
59
105
62
66
60
82
51
57
64
13
61
47
75
-21
44
117
111
108
89
34
46
53
65
51
76
94
47
66
65
83
-16
55
71
86
36
57
26
33
67
58
82
47
83
58
12
48
37
59
41
46
35
57
59
31
74
70
48
15
99
61
21
51
114
77
106
27
40
49
53
124
70
56
27
105
40
45
42
54
113
64
55
58
57
57
57
45
76
65
64
49
54
79
64
51
35
117
82
49
35
113
-71
41
26
42
56
42
-65
97
43
49
55
49
55
72
71
31
42
65
50
57
-89
62
41
39
95
83
56
49
101
52
53
65
66
42
88
70
71
58
39
58
54
47
18
102
62
71
-49
6
113
76
48
-46
41
-126
47
99
118
37
57
61
-106
70
52
54
24
105
73
41
95
63
86
68
55
57
76
-106
43
56
24
70
50
52
62
29
73
61
40
63
35
52
44
74
53
51
70
68
60
25
53
69
50
-75
77
-105
38
61
31
41
59
55
38
60
49
62
109
45
65
92
127
57
37
61
61
61
-65
62
91
63
53
-90
60
69
54
67
49
52
75
33
99
42
78
59
48
57
67
47
57
57
-124
55
62
57
-103
47
62
67
62
67
48
57
27
45
100
110
38
47
53
52
48
39
95
68
58
75
59
49
58
44
65
94
65
43
64
34
66
-88
57
-20
42
34
-100
96
53
37
54
47
44
63
-71
57
52
20
70
58
56
44
99
-128
84
74
57
85
69
54
101
65
89
30
62
85
80
32
42
41
53
55
44
88
66
68
62
73
54
57
51
58
57
51
53
44
61
88
42
41
73
81
57
45
49
29
30
47
76
47
54
68
72
-104
63
71
48
53
74
85
38
47
64
65
42
63
66
34
67
40
50
73
65
37
73
66
63
101
71
77
61
72
69
80
52
48
85
58
51
93
55
76
54
35
54
63
49
78
-96
55
59
42
21
57
75
68
40
123
116
46
34
43
-106
52
-117
-69
52
-124
41
60
46
55
53
49
47
-99
67
59
54
56
46
73
60
58
78
42
30
120
75
91
48
39
-80
109
-104
-106
123
-109
111
-127
-96
-109
127
-116
-107
-101
-116
-98
-105
-83
-67
-93
124
125
-98
-91
-105
-123
-108
-124
114
-122
-125
124
-126
-122
-107
-105
-128
-121
-109
-118
-108
-112
117
-116
-128
122
-103
122
-116
121
-76
-126
-111
-124
-116
-111
116
-108
-95
-126
-121
-109
122
-98
-105
-96
-112
-97
123
-87
-121
-110
-125
-102
103
-113
-127
113
127
-34
110
-93
-91
-85
-98
-114
-125
-106
-100
-114
-128
-110
-121
-106
122
-113
-60
-115
-90
-126
-124
-122
127
-91
122
-108
-112
-124
-77
116
-93
-117
118
112
124
109
-90
-112
-98
119
-114
-71
-121
118
-99
106
-102
-122
-64
-101
-118
-98
-111
122
-115
-65
116
-128
125
-85
-101
-124
-125
-93
-115
113
-107
105
115
-117
-124
-120
-117
-109
-126
-118
-125
-96
-117
125
-115
-94
127
99
125
-96
-88
117
121
124
122
-115
-70
-109
-124
127
124
-116
-100
-125
-109
-106
125
114
-120
-123
-53
-109
-111
-107
-100
-100
-128
-121
-109
115
126
-111
-100
-127
-117
-113
127
118
-119
126
127
-121
-119
-116
114
114
-73
-122
-98
-128
127
-92
-115
-84
-127
-92
-86
-104
-106
-116
-70
121
126
-127
-106
-102
102
-108
-94
-123
-102
-95
127
-127
-94
-99
-119
111
-105
-106
122
125
-122
-104
111
-121
-120
-95
127
124
-108
-106
120
125
-107
-97
121
-123
124
123
111
-51
-117
-86
-122
-125
-127
120
115
122
-121
-108
-127
125
-95
-96
-111
-115
-100
-110
-99
117
-111
-123
-61
125
-77
126
-112
-60
124
-117
-119
-121
-96
-125
120
-124
-119
-125
125
114
-127
-126
124
-110
-126
114
-118
-118
116
122
-70
-95
-120
-123
-111
-117
-123
122
-126
-127
-102
-78
-120
-112
-100
106
-97
117
-123
120
-120
-123
-127
118
-120
124
-100
-90
-100
-114
126
-94
-114
-55
122
-36
-116
-109
-97
-86
-123
-114
113
117
-115
-118
-86
-110
-100
-114
-117
-99
110
-106
-75
-92
-122
105
108
-122
125
-113
-118
-125
-99
111
-96
-101
-104
-101
-119
-111
-108
122
-127
-79
124
-124
105
-112
122
-113
127
124
120
114
112
127
-120
-104
-103
-124
-110
-83
-126
-116
-112
-127
125
-100
-103
-123
123
-108
-119
-97
-121
-117
-125
-93
-106
-98
-128
122
-115
-95
-82
113
-118
-112
119
-119
-124
124
-97
-120
-84
108
-128
-109
-127
-100
-124
-119
127
-113
-117
121
-105
-117
125
-113
-115
123
122
122
-122
-106
121
-124
-67
-120
124
-123
-123
-117
113
116
118
126
-96
118
124
-126
-73
-120
-77
-59
-97
-68
-108
-111
-92
-117
-123
-108
-125
-77
124
111
-117
119
115
-107
-121
-117
-103
-116
-119
-94
-92
-110
117
123
113
-114
107
124
-112
-112
113
115
124
118
119
126
126
121
121
-123
-128
116
119
127
-118
-128
-128
104
118
-121
122
112
118
116
-113
126
117
118
114
-121
-128
112
112
-121
124
123
106
126
126
126
-128
108
-117
122
124
107
123
119
116
126
-124
110
118
127
118
126
125
-127
114
-118
115
-126
127
114
-125
120
-128
-128
118
122
125
127
-123
-125
-117
119
-127
125
-122
122
102
108
120
114
123
-123
106
-127
125
115
118
120
110
124
110
-122
-125
125
123
122
121
123
110
-123
124
102
119
120
118
110
118
112
107
123
112
116
124
123
-125
126
-126
-125
123
112
-126
-128
115
115
-122
113
117
-117
114
-114
124
106
-117
-124
122
-122
-114
-124
-122
-120
126
118
-128
122
-116
122
121
126
119
-124
125
121
126
120
-126
120
123
121
-125
-127
-125
125
126
-121
121
123
114
110
127
-128
109
-125
-126
112
-128
-123
126
-127
-118
-124
-125
112
111
88
-108
-127
-122
123
-125
122
-121
124
-125
125
124
107
-127
108
127
125
114
-126
117
101
118
121
-128
-122
107
125
-125
125
-125
-125
-111
125
108
123
115
-125
109
-128
114
120
-128
116
-120
-125
122
124
115
101
119
110
120
123
127
-110
117
106
118
-125
120
124
122
116
-118
-124
123
125
122
121
126
122
104
117
117
114
119
107
-128
122
110
111
120
-128
125
120
117
-121
-125
-119
-128
108
122
105
119
112
122
126
110
-123
113
122
115
121
123
-125
-124
117
-127
127
121
124
-126
120
107
125
125
-120
111
118
-122
123
-123
-123
-126
111
120
120
118
115
-128
-121
117
-121
121
99
116
-125
125
-110
111
123
110
126
-122
-120
-125
-121
116
116
127
120
112
124
122
127
120
112
119
119
120
125
112
127
-121
123
-118
109
125
110
124
108
126
127
127
-121
106
115
127
118
117
115
127
126
120
120
118
-119
-126
116
-125
-119
-119
126
-125
102
110
-121
116
-125
125
120
-128
-112
121
104
127
-120
-123
-127
116
120
126
-121
114
116
-106
111
112
120
-103
-111
122
110
118
-127
113
113
127
-127
126
125
-128
125
124
122
122
124
126
-119
120
120
125
-119
113
116
126
-125
121
112
123
125
106
123
117
-125
112
-128
120
-126
-121
104
103
117
122
114
121
119
-125
115
126
126
111
-127
-125
121
-128
127
126
124
-112
122
108
-126
113
115
116
118
119
-125
-125
106
111
124
-117
125
124
127
126
124
116
115
-125
125
125
123
123
124
105
122
-116
123
-123
-120
98
-115
-124
121
-117
110
-118
-125
116
123
127
121
125
-123
-126
-122
-127
123
-109
-125
123
-128
122
-122
111
115
111
124
-127
122
121
104
119
-128
123
126
125
121
124
105
97
-113
-128
126
-127
106
109
120
-127
118
117
114
-118
118
117
125
-127
-125
-121
124
124
115
120
-126
-123
109
-120
-128
120
-126
-126
103
114
118
-123
115
121
116
120
113
-126
96
-118
-128
112
120
127
-128
-127
-116
125
-126
116
119
-121
110
124
-115
125
121
-116
-126
123
-128
112
115
121
-118
120
-120
-122
-124
-127
-123
118
-119
117
-122
109
127
99
-124
-114
114
-125
-120
127
113
124
107
-126
119
127
-126
123
115
122
-113
-89
-122
123
-128
124
-113
-120
-125
112
123
-127
126
113
120
-110
115
120
109
111
-114
120
-117
124
126
125
102
-128
125
-123
124
-125
117
-120
-120
-124
117
112
-125
121
115
127
102
113
98
120
123
121
114
114
-122
-124
113
123
122
114
125
-125
-128
-123
-117
112
-124
-122
-115
120
-116
116
-114
-123
115
103
-127
-117
121
112
-118
122
125
123
127
109
-122
-127
124
117
124
112
119
117
-109
124
119
112
108
122
122
120
-117
-115
119
122
120
117
112
-119
-128
-126
-124
122
116
123
121
-112
111
121
115
-113
-106
-124
-125
117
-120
122
122
-126
120
116
110
-125
121
-117
125
121
116
125
115
-123
108
114
121
109
112
-125
-122
110
116
-126
-123
116
127
110
-126
-115
125
-127
117
120
120
110
110
-121
113
-122
-123
-128
110
100
-111
123
111
122
-110
-126
-123
112
118
122
-124
107
110
-123
-127
127
106
-115
122
126
106
120
125
-127
-121
118
118
119
125
126
118
87
114
113
-116
106
-122
118
125
-112
126
119
114
121
100
-126
115
121
122
101
120
104
111
-123
101
121
-127
111
118
121
122
115
126
119
124
-128
112
-125
115
117
115
-124
125
-120
125
123
-123
118
-127
102
120
-110
119
99
-121
120
121
109
120
103
-121
126
108
-128
-119
123
-125
-109
122
-128
126
112
-128
113
-114
-126
123
-128
124
118
-117
111
-123
123
110
107
-125
125
112
113
121
-127
125
-127
-113
127
-116
-128
118
-127
-128
111
108
-124
107
120
-125
127
-123
126
113
107
121
123
-110
99
123
121
122
116
-114
-124
120
118
118
126
126
127
120
-118
-120
111
121
119
-117
117
106
-128
118
125
109
-117
-127
113
127
117
108
120
119
111
119
119
-116
-119
115
113
126
115
114
126
109
125
121
121
114
126
120
120
-127
-128
116
114
118
115
99
100
104
-125
-115
99
-114
126
-127
-125
127
116
113
121
124
125
123
115
-125
-120
127
115
124
124
-123
123
102
126
112
123
-119
119
106
-123
125
111
-128
127
126
121
124
126
123
-127
124
120
127
110
120
119
120
127
127
-125
-125
120
108
-127
-123
115
-113
115
126
120
121
-119
125
118
-121
-118
126
-127
110
123
116
127
125
-111
114
123
123
121
-128
110
115
-119
126
124
118
125
124
118
112
123
125
119
118
117
127
118
123
126
127
123
-115
125
-123
-126
106
-125
120
123
117
118
-127
119
-126
115
-125
-126
-122
119
-124
126
113
122
120
111
122
122
123
124
127
124
121
125
126
124
121
122
-128
-124
-127
118
126
125
124
123
122
116
116
122
-128
127
-124
112
106
-120
109
-119
126
118
120
-127
-121
-119
114
122
126
126
126
110
-115
119
-128
-121
113
120
125
-122
-126
126
118
125
121
117
115
118
108
-128
108
127
121
117
119
114
118
127
127
117
114
123
117
126
109
121
126
124
126
112
120
111
-125
125
111
117
-127
-127
120
120
109
121
119
126
123
118
125
-127
121
119
117
116
117
-128
-123
120
127
119
-126
-127
-128
119
118
-125
109
127
125
-128
122
-127
123
121
114
118
-128
115
117
125
118
-127
114
-117
119
119
120
-124
126
-128
-126
112
-112
-126
-126
-123
126
121
122
-123
120
124
113
125
-114
-126
-127
127
118
105
117
93
120
114
120
117
112
122
119
-128
118
123
-126
127
-113
-117
113
122
-119
-123
119
121
120
109
121
127
-125
120
-128
-124
111
126
125
124
-120
113
120
127
117
112
116
124
-126
-124
116
-128
-124
124
127
121
121
111
119
123
125
118
127
-127
126
120
-127
107
115
120
113
108
-127
125
121
107
121
127
117
126
118
127
-125
115
118
123
122
117
-125
123
118
-128
121
120
117
-125
127
122
124
94
102
117
126
121
107
122
115
127
125
-126
-119
-123
116
122
121
118
119
-124
-122
121
120
-122
-125
120
125
127
122
122
109
117
121
-122
116
117
120
-125
126
117
121
124
121
122
124
-128
-125
122
123
122
117
-122
114
126
121
100
119
110
107
127
113
125
113
125
101
-126
-125
126
116
-122
109
125
121
118
126
123
-125
108
122
123
121
-120
119
127
117
119
118
-115
121
-127
116
126
119
117
-127
119
-127
123
121
119
123
125
123
123
-124
114
125
123
119
-127
127
115
123
117
102
116
124
-127
119
124
124
122
118
127
122
124
124
115
122
125
-124
124
117
-123
120
126
107
120
119
122
118
124
114
126
115
124
126
123
-125
113
107
113
109
-126
-126
115
109
118
-126
101
122
122
-124
121
118
122
123
-121
118
-126
125
-120
126
-124
-126
124
116
125
-125
125
114
118
-126
115
-124
100
125
121
120
-119
117
96
-125
124
-128
-125
84
122
121
118
-122
122
105
122
-126
116
-126
126
124
-126
115
122
120
118
122
121
112
108
126
121
121
-128
111
119
120
120
-127
-127
125
120
115
111
114
102
124
117
-105
122
-124
118
116
-120
125
127
122
119
122
114
126
113
124
125
-118
-127
117
125
-125
127
-123
120
125
119
120
119
121
114
118
125
111
116
121
98
121
118
119
-124
105
114
111
122
116
116
116
111
115
121
121
118
-127
126
123
118
-123
-128
127
124
119
118
122
121
113
116
124
127
124
114
117
77
-125
123
-120
116
-126
116
117
119
121
120
127
122
117
115
127
-125
126
125
119
117
122
127
125
112
124
-128
113
124
-128
126
112
123
116
117
124
120
-124
126
121
127
124
-121
125
117
114
109
115
120
118
119
-128
125
121
127
122
112
125
118
123
121
121
119
110
122
-127
-123
-125
123
125
-120
114
109
-121
122
127
120
114
121
113
-114
-119
-121
110
120
118
-117
118
121
-121
-124
114
109
118
123
-114
115
124
-117
109
124
109
119
-127
118
-127
-126
122
-123
-127
-124
127
122
117
115
117
-128
111
126
122
-127
125
-127
124
104
127
120
124
126
-127
-120
110
105
123
117
-124
127
118
125
119
114
127
109
123
-123
116
120
119
123
121
122
119
119
120
-119
127
116
-118
122
118
125
124
127
127
115
114
116
120
117
-122
-125
124
118
114
120
-127
123
116
121
-128
-124
-123
-118
-125
120
118
110
119
124
-120
-107
125
123
121
120
111
114
114
127
122
119
-127
117
122
-127
116
125
121
118
-123
123
126
-119
-124
82
125
111
-123
-110
124
-126
119
123
127
127
-123
122
113
120
-122
118
123
124
123
116
115
116
122
110
127
-125
-126
118
121
-127
115
121
112
124
120
-124
-115
122
111
-120
127
121
-126
115
118
-120
-121
119
127
112
115
123
119
-122
122
117
119
113
116
-122
123
114
123
117
-128
125
119
-123
122
112
124
-128
-127
120
-126
125
117
-111
121
-128
-125
118
117
117
116
111
121
98
127
115
-128
126
114
113
124
121
106
102
-124
113
115
123
121
121
-123
116
101
116
111
126
108
124
120
119
120
121
123
115
117
-124
105
127
127
118
122
-127
-123
117
124
123
-122
60
59
74
-113
58
65
56
59
-34
39
56
46
67
58
50
65
63
44
84
44
75
48
49
46
46
49
77
61
49
84
39
37
68
62
-124
28
41
58
63
79
45
50
56
53
46
39
65
64
61
46
40
55
44
73
50
51
88
65
111
46
76
58
69
-110
43
44
13
67
84
58
81
-128
45
61
53
33
69
53
46
63
63
42
82
48
36
26
61
55
105
45
53
64
69
69
67
88
52
56
82
69
-128
85
41
64
59
30
44
51
71
60
-120
54
55
68
68
56
62
73
75
48
56
72
78
48
22
54
117
44
34
94
64
38
89
47
100
82
53
67
74
107
102
56
48
42
63
37
-121
70
46
64
65
62
59
82
68
39
50
56
63
72
42
102
58
44
73
88
43
62
71
74
62
65
94
56
93
97
75
41
31
76
65
22
52
58
59
55
-100
24
59
53
59
42
62
67
65
47
70
-90
54
83
52
19
46
62
63
42
119
60
33
106
58
36
103
52
53
53
50
-93
105
-94
52
48
80
51
59
74
50
48
52
57
-90
32
50
31
124
34
57
-63
80
70
47
121
61
87
24
51
47
51
69
70
64
36
69
-118
76
58
80
71
52
33
77
66
69
35
61
53
52
42
68
15
54
85
77
58
65
48
51
61
32
54
54
-101
55
61
122
49
62
57
58
58
71
53
57
57
47
58
51
69
43
48
0
56
73
20
39
40
38
56
38
77
56
76
43
86
78
58
49
63
20
84
63
48
64
79
-117
55
-108
46
52
-113
47
49
96
83
118
56
69
75
57
39
47
49
78
51
43
-44
109
64
51
56
53
53
46
82
47
72
53
46
60
66
56
97
60
62
79
86
55
16
51
-122
55
64
68
58
37
49
57
58
64
59
51
63
47
47
87
41
70
61
114
98
99
48
58
125
52
50
61
81
61
109
51
81
41
47
45
31
81
54
-124
62
45
56
45
32
77
50
44
70
73
57
55
62
33
30
89
91
51
52
46
-126
27
64
53
80
111
72
56
101
48
36
68
55
56
36
-80
43
79
87
58
51
61
75
49
61
58
58
-114
77
47
43
55
67
58
68
50
44
65
58
118
59
61
54
67
61
55
101
46
66
69
115
62
67
121
52
66
33
51
36
78
52
-92
53
47
38
85
34
35
45
107
53
63
50
57
67
74
52
116
42
108
75
67
50
-105
125
127
-88
-121
-110
-126
-125
-61
-124
-127
120
-109
-106
124
-112
-112
120
125
-124
-122
126
-126
-107
-125
123
-88
115
110
-119
-126
98
126
121
-90
-110
-115
-117
-119
-122
-121
-126
125
124
-123
123
-124
-108
125
101
-123
-117
-128
-103
120
-112
-110
-111
-82
-121
-113
125
-123
-66
119
-128
-125
-81
-119
-113
-120
-86
-117
-107
122
-125
-124
118
-127
-95
-115
-128
-89
-96
-118
-117
-98
-108
-100
107
-126
-124
-109
125
120
-97
-105
-116
-111
-94
-113
118
121
-99
124
-127
-103
-111
-96
-111
-77
-114
-127
120
124
123
126
126
-109
122
-103
-97
-117
126
-119
118
-98
-117
-112
-93
-105
-118
-92
119
-103
-102
117
-127
-128
-82
-90
110
-116
-120
126
120
-107
-123
124
123
-109
126
-119
-111
-118
-127
-127
-117
120
127
-106
-94
-127
118
120
-83
120
122
-113
125
-128
-92
-96
-118
-100
-105
127
-118
127
120
-128
122
-123
109
112
117
-82
125
-87
-124
-122
-117
118
-114
-94
121
122
-78
-113
-103
116
-109
-116
-121
-117
120
-93
-110
-121
-111
-124
122
-89
-107
119
-123
-127
-114
-100
-82
116
-107
-86
-127
-107
-117
-101
123
124
-124
-78
-114
107
124
-83
-125
-113
-75
125
122
-117
-82
-119
-109
126
127
119
-119
-125
-117
117
-119
126
-77
-120
124
-102
-110
113
120
-123
-112
117
-114
-120
-125
-126
-104
118
-109
-118
-125
-111
120
113
112
-117
125
122
122
-126
-84
-116
-126
-97
-115
-124
98
-106
-120
-102
-128
-99
123
125
-91
125
124
-127
-113
-100
-124
-128
-116
-121
126
124
-118
125
-127
117
-104
127
-123
-125
-104
124
-127
-114
-115
116
122
-118
-111
-94
127
-105
116
-111
-86
-125
-122
-106
83
-90
-104
-125
-111
-126
-118
121
-125
-104
124
-122
-62
-117
-117
124
-110
-99
-102
126
-93
125
-116
116
-111
-115
-114
-114
-99
-109
123
-118
-91
-109
-110
-127
-80
121
-122
-111
-116
126
118
127
-125
115
-126
127
-111
-110
-125
-96
-119
-115
-116
-92
-95
-87
116
123
-68
109
-124
96
-105
127
-86
-124
-111
112
126
114
-126
120
-111
-90
113
-121
-113
-122
-118
-120
124
126
-98
-102
123
-127
-108
114
113
122
-111
120
-106
-125
-83
126
107
-113
-104
-88
119
-122
-98
-123
110
-99
123
-105
-121
-75
117
-118
-105
121
-106
124
127
-118
-110
118
-127
-79
-119
121
117
120
-116
116
126
-125
-127
123
120
-89
99
-128
117
-126
115
117
-104
101
-117
-125
-112
-124
-125
-95
-128
-110
121
-103
-120
-125
-111
-89
-115
124
-123
-122
-127
-123
107
-108
-126
-111
111
124
-109
-100
126
-104
-112
-113
-99
121
98
